digraph Tree {
node [shape=box] ;
0 [label="X[0] <= 0.5\ngini = 0.459\nsamples = 14\nvalue = [5, 9]"] ;
1 [label="gini = 0.0\nsamples = 4\nvalue = [0, 4]"] ;
0 -> 1 [labeldistance=2.5, labelangle=45, headlabel="True"] ;
2 [label="X[2] <= 0.5\ngini = 0.5\nsamples = 10\nvalue = [5, 5]"] ;
0 -> 2 [labeldistance=2.5, labelangle=-45, headlabel="False"] ;
3 [label="X[1] <= 1.5\ngini = 0.32\nsamples = 5\nvalue = [1, 4]"] ;
2 -> 3 ;
4 [label="X[3] <= 0.5\ngini = 0.444\nsamples = 3\nvalue = [1, 2]"] ;
3 -> 4 ;
5 [label="X[0] <= 1.5\ngini = 0.5\nsamples = 2\nvalue = [1, 1]"] ;
4 -> 5 ;
6 [label="gini = 0.0\nsamples = 1\nvalue = [0, 1]"] ;
5 -> 6 ;
7 [label="gini = 0.0\nsamples = 1\nvalue = [1, 0]"] ;
5 -> 7 ;
8 [label="gini = 0.0\nsamples = 1\nvalue = [0, 1]"] ;
4 -> 8 ;
9 [label="gini = 0.0\nsamples = 2\nvalue = [0, 2]"] ;
3 -> 9 ;
10 [label="X[0] <= 1.5\ngini = 0.32\nsamples = 5\nvalue = [4, 1]"] ;
2 -> 10 ;
11 [label="gini = 0.0\nsamples = 3\nvalue = [3, 0]"] ;
10 -> 11 ;
12 [label="X[3] <= 0.5\ngini = 0.5\nsamples = 2\nvalue = [1, 1]"] ;
10 -> 12 ;
13 [label="gini = 0.0\nsamples = 1\nvalue = [1, 0]"] ;
12 -> 13 ;
14 [label="gini = 0.0\nsamples = 1\nvalue = [0, 1]"] ;
12 -> 14 ;
}